#define kQrsFilterLength  302
const double kQrsFilterKernel[kQrsFilterLength] = {
  0.00000000009371913993,
  -0.00000000134315127654,
  0.00000000988441600882,
  -0.00000005334449261178,
  0.00000028726850850300,
  -0.00000391348684518879,
  0.00000061035693588907,
  0.00000074759558371987,
  0.00000106469557974188,
  0.00000094027498126730,
  0.00000035299859832821,
  -0.00000071872851666997,
  -0.00000215695212596163,
  -0.00000371851198852765,
  -0.00000506119604581146,
  -0.00000580154522299955,
  -0.00000559472520786409,
  -0.00000422226418352679,
  -0.00000166891286852645,
  0.00000183103276777480,
  0.00000579420059412851,
  0.00000954400459414946,
  0.00001231963934996372,
  0.00001342378652487168,
  0.00001238364476597790,
  0.00000909271346219760,
  0.00000389951835155295,
  -0.00000238466329042954,
  -0.00000857423357125590,
  -0.00001329102538671681,
  -0.00001521641250667640,
  -0.00001337251236842321,
  -0.00000737885595048784,
  0.00000237207792422794,
  0.00001466872180781352,
  0.00002759242688651927,
  0.00003878821457868282,
  0.00004586268115693321,
  0.00004684730649243077,
  0.00004064371546117706,
  0.00002735971001107845,
  0.00000845449997747925,
  -0.00001336121684486477,
  -0.00003448309433811286,
  -0.00005099227059615002,
  -0.00005937085633749151,
  -0.00005723136312977561,
  -0.00004391974321825994,
  -0.00002085923316625724,
  0.00000846335095257912,
  0.00003890947631293782,
  0.00006446714115307808,
  0.00007928920190760514,
  0.00007882308033931569,
  0.00006082637556588753,
  0.00002606168984676355,
  -0.00002149758789390079,
  -0.00007504387647837888,
  -0.00012588686131490166,
  -0.00016486218093634105,
  -0.00018398045514000894,
  -0.00017803149527683432,
  -0.00014583742091737258,
  -0.00009088321418319720,
  -0.00002114292450137533,
  0.00005194731478862295,
  0.00011526303499857611,
  0.00015625513822161620,
  0.00016533008240030586,
  0.00013791527185639084,
  0.00007579584626042950,
  -0.00001259449813395700,
  -0.00011308140472475718,
  -0.00020780099666884661,
  -0.00027812189060899144,
  -0.00030797979098770578,
  -0.00028704876311491591,
  -0.00021315183860797656,
  -0.00009340067884777088,
  0.00005625714477819854,
  0.00021314030451664140,
  0.00035134480198917040,
  0.00044614482442530953,
  0.00047855730413517414,
  0.00043925292401653711,
  0.00033104707249444735,
  0.00016939922821420858,
  -0.00001933556093153876,
  -0.00020177197632488241,
  -0.00034295054759867757,
  -0.00041252776382255039,
  -0.00039064162243931467,
  -0.00027236817278933492,
  -0.00006985286308138068,
  0.00018845263909035291,
  0.00046154106264716533,
  0.00070215065866320061,
  0.00086468808856904583,
  0.00091348184043783072,
  0.00082991651432349892,
  0.00061708746648586480,
  0.00030095428999539004,
  -0.00007248184943042885,
  -0.00044378028534979995,
  -0.00074955923060942003,
  -0.00093342727878207047,
  -0.00095652153405632802,
  -0.00080575911608671302,
  -0.00049817139702410906,
  -0.00008025925776747045,
  0.00037789566850559756,
  0.00079312827531329629,
  0.00108280638977888860,
  0.00117942200469365612,
  0.00104368492521845634,
  0.00067372451328626614,
  0.00010850365714566937,
  -0.00057558974031584177,
  -0.00127490846247338896,
  -0.00187423761085597817,
  -0.00226574409254347341,
  -0.00236819351843320283,
  -0.00214317943140404036,
  -0.00160537733705335599,
  -0.00082462481463225470,
  0.00008116026935605097,
  0.00096175461929121444,
  0.00165715289433334789,
  0.00202364363804423235,
  0.00195943426587332587,
  0.00142561650557550138,
  0.00045872902926474525,
  -0.00082772809630646325,
  -0.00225388478535438379,
  -0.00359540721861973962,
  -0.00461410066295250918,
  -0.00509307557155102685,
  -0.00487139585216799648,
  -0.00387292241900474930,
  -0.00212466616901099388,
  0.00023868757535817887,
  0.00298550560775258378,
  0.00581239778922675639,
  0.00838091184229674407,
  0.01036096539417399529,
  0.01147509591638256644,
  0.01153730172696028691,
  0.01048085184195784308,
  0.00837088801668641261,
  0.00539972827681076562,
  0.00186520672785363446,
  -0.00186520672785363338,
  -0.00539972827681077083,
  -0.00837088801668641434,
  -0.01048085184195784135,
  -0.01153730172696028865,
  -0.01147509591638256297,
  -0.01036096539417399355,
  -0.00838091184229674407,
  -0.00581239778922675553,
  -0.00298550560775258335,
  -0.00023868757535818057,
  0.00212466616901099215,
  0.00387292241900474843,
  0.00487139585216799821,
  0.00509307557155102859,
  0.00461410066295250918,
  0.00359540721861973918,
  0.00225388478535438423,
  0.00082772809630646336,
  -0.00045872902926474525,
  -0.00142561650557550138,
  -0.00195943426587332587,
  -0.00202364363804423148,
  -0.00165715289433334746,
  -0.00096175461929121509,
  -0.00008116026935605173,
  0.00082462481463225600,
  0.00160537733705335621,
  0.00214317943140404079,
  0.00236819351843320283,
  0.00226574409254347384,
  0.00187423761085597795,
  0.00127490846247338939,
  0.00057558974031584242,
  -0.00010850365714566991,
  -0.00067372451328626636,
  -0.00104368492521845612,
  -0.00117942200469365612,
  -0.00108280638977888860,
  -0.00079312827531329640,
  -0.00037789566850559767,
  0.00008025925776747046,
  0.00049817139702410895,
  0.00080575911608671291,
  0.00095652153405632781,
  0.00093342727878207037,
  0.00074955923060942013,
  0.00044378028534979952,
  0.00007248184943042885,
  -0.00030095428999538961,
  -0.00061708746648586501,
  -0.00082991651432349849,
  -0.00091348184043783072,
  -0.00086468808856904583,
  -0.00070215065866320071,
  -0.00046154106264716533,
  -0.00018845263909035288,
  0.00006985286308138073,
  0.00027236817278933497,
  0.00039064162243931467,
  0.00041252776382255034,
  0.00034295054759867757,
  0.00020177197632488246,
  0.00001933556093153879,
  -0.00016939922821420866,
  -0.00033104707249444730,
  -0.00043925292401653722,
  -0.00047855730413517408,
  -0.00044614482442530953,
  -0.00035134480198917046,
  -0.00021314030451664151,
  -0.00005625714477819869,
  0.00009340067884777090,
  0.00021315183860797673,
  0.00028704876311491596,
  0.00030797979098770578,
  0.00027812189060899138,
  0.00020780099666884661,
  0.00011308140472475715,
  0.00001259449813395701,
  -0.00007579584626042950,
  -0.00013791527185639082,
  -0.00016533008240030581,
  -0.00015625513822161612,
  -0.00011526303499857608,
  -0.00005194731478862292,
  0.00002114292450137529,
  0.00009088321418319714,
  0.00014583742091737255,
  0.00017803149527683435,
  0.00018398045514000897,
  0.00016486218093634105,
  0.00012588686131490161,
  0.00007504387647837890,
  0.00002149758789390081,
  -0.00002606168984676353,
  -0.00006082637556588753,
  -0.00007882308033931567,
  -0.00007928920190760513,
  -0.00006446714115307810,
  -0.00003890947631293782,
  -0.00000846335095257911,
  0.00002085923316625723,
  0.00004391974321825994,
  0.00005723136312977561,
  0.00005937085633749150,
  0.00005099227059615002,
  0.00003448309433811289,
  0.00001336121684486476,
  -0.00000845449997747925,
  -0.00002735971001107844,
  -0.00004064371546117704,
  -0.00004684730649243077,
  -0.00004586268115693320,
  -0.00003878821457868283,
  -0.00002759242688651927,
  -0.00001466872180781352,
  -0.00000237207792422794,
  0.00000737885595048784,
  0.00001337251236842322,
  0.00001521641250667640,
  0.00001329102538671680,
  0.00000857423357125590,
  0.00000238466329042954,
  -0.00000389951835155295,
  -0.00000909271346219761,
  -0.00001238364476597790,
  -0.00001342378652487168,
  -0.00001231963934996372,
  -0.00000954400459414946,
  -0.00000579420059412851,
  -0.00000183103276777480,
  0.00000166891286852645,
  0.00000422226418352680,
  0.00000559472520786409,
  0.00000580154522299955,
  0.00000506119604581146,
  0.00000371851198852765,
  0.00000215695212596163,
  0.00000071872851666997,
  -0.00000035299859832821,
  -0.00000094027498126730,
  -0.00000106469557974188,
  -0.00000074759558371987,
  -0.00000061035693588907,
  0.00000391348684518879,
  -0.00000028726850850300,
  0.00000005334449261178,
  -0.00000000988441600882,
  0.00000000134315127654,
  -0.00000000009371913993
};

#define kMaFilterLength 45
const double kMaFilter[kMaFilterLength] = {
  0.02222222222222222307,
  0.02222222222222222307,
  0.02222222222222222307,
  0.02222222222222222307,
  0.02222222222222222307,
  0.02222222222222222307,
  0.02222222222222222307,
  0.02222222222222222307,
  0.02222222222222222307,
  0.02222222222222222307,
  0.02222222222222222307,
  0.02222222222222222307,
  0.02222222222222222307,
  0.02222222222222222307,
  0.02222222222222222307,
  0.02222222222222222307,
  0.02222222222222222307,
  0.02222222222222222307,
  0.02222222222222222307,
  0.02222222222222222307,
  0.02222222222222222307,
  0.02222222222222222307,
  0.02222222222222222307,
  0.02222222222222222307,
  0.02222222222222222307,
  0.02222222222222222307,
  0.02222222222222222307,
  0.02222222222222222307,
  0.02222222222222222307,
  0.02222222222222222307,
  0.02222222222222222307,
  0.02222222222222222307,
  0.02222222222222222307,
  0.02222222222222222307,
  0.02222222222222222307,
  0.02222222222222222307,
  0.02222222222222222307,
  0.02222222222222222307,
  0.02222222222222222307,
  0.02222222222222222307,
  0.02222222222222222307,
  0.02222222222222222307,
  0.02222222222222222307,
  0.02222222222222222307,
  0.02222222222222222307
};